Roll Number; 0
Recipe Name; FP 4548_782 GSM
Start Time; 2018-03-13; 08:59:07
File Name; D:\Mahlo\TR\180313085907FP 4548_782 GSM0_FMI2.txt

-2.2; 09:01:13; -2.449919; -2.477274; -2.453228; -2.437615; -2.465977; -2.047359; 21.355093; 77.893689; 136.808559; 189.576507; 241.867170; 300.446898; 351.963162; 403.964788; 463.280946; 522.105396; 580.492616; 631.627679; 682.654560; 741.063774; 790.194750; 807.532012; 807.268202; 806.285381; 804.511070; 803.724051; 803.297222; 802.578747; 801.301897; 800.055683; 799.416661; 799.459279; 799.685180; 799.773574; 799.570143; 799.633861; 799.661756; 800.614417; 801.128924; 800.814509; 801.207662; 801.313818; 793.540061; 754.958928; 706.155598; 655.649006; 597.301304; 546.045661; 495.111465; 436.939120; 378.464609; 326.980889; 274.793327; 216.099188; 165.262252; 113.876529; 56.251355; 14.603565; 0.638711; -1.257760; -1.487784; -1.498825; -1.590879; -1.577398; -1.599357; -1.539095; -1.572091; -1.529533; -1.437666; -1.348105; -1.334256; -1.319092; -1.345885; -1.395487; -1.412180; -1.405542; -1.452726; -1.434903; -1.449330; 0.873912; 24.343988; 65.003231; 101.738185; 138.997361; 175.669983; 212.269112; 254.120708; 295.922190; 332.578123; 369.202673; 411.044031; 447.715163; 489.229113; 530.760586; 559.165299; 573.750079; 575.500965; 575.857282; 575.763643; 576.381087; 577.099144; 577.834010; 577.400267; 576.679528; 575.763822; 574.881017; 574.164450; 573.869526; 573.294699; 572.495282; 571.356952; 570.084155; 568.725228; 567.561150; 566.325247; 564.624667; 563.090384; 563.023388; 563.228011; 563.700855; 564.107537; 564.579427; 564.743459; 564.302981; 563.731730; 563.491046; 563.632250; 564.405084; 565.070391; 565.193892; 565.144539; 564.836979; 563.849688; 562.511444; 562.008083; 561.442673; 560.719430; 560.542822; 560.928583; (); 
0.3; 09:01:24; (); 791.927755; 792.530954; 793.417811; 794.680238; 795.544744; 795.179427; 793.596804; 792.942286; 793.063700; 793.852448; 794.999301; 794.446647; 779.832065; 749.949753; 721.538246; 690.178871; 656.942666; 622.840464; 582.845330; 543.230116; 510.844648; 486.750394; 456.818998; 403.589219; 352.868289; 302.178323; 253.151566; 217.157170; 189.438730; 167.341039; 148.047403; 127.927482; 110.894263; 94.254412; 75.268067; 53.737894; 26.392201; 2.867460; -1.405562; -1.281491; -1.294257; -1.273616; -1.196763; -1.293501; -1.348100; -1.369299; -1.364013; -1.439843; -1.527499; -1.568830; -1.610436; -1.600089; -1.583337; -1.720438; -1.803741; -1.811477; -1.830227; -1.881291; -1.822757; -1.791836; -1.808665; -1.954198; -1.899554; -1.850324; -1.796506; -1.690203; -1.629830; -1.571743; -1.538959; -1.502122; -1.413402; -1.336062; -1.324720; -1.432227; -1.445453; -1.375810; -1.276917; -1.190458; -1.108210; -1.175886; -1.223670; -1.209050; 0.550311; 13.391981; 47.581550; 89.013301; 125.363469; 167.215899; 209.285751; 246.116832; 288.112670; 324.722618; 361.001432; 402.841628; 439.958811; 477.084428; 519.326448; 554.267704; 574.334502; 576.716602; 577.203453; 577.053607; 577.152967; 576.671124; 576.441288; 576.656759; 577.078223; 577.601910; 577.661335; 577.057660; 576.294243; 575.806737; 575.436831; 575.284362; 575.356424; 575.845122; 576.126814; 575.858295; 576.751530; 577.229142; 577.027142; 576.274812; 575.381696; 574.755907; 574.456811; 574.428141; 573.931575; 572.776437; 571.855903; 571.479142; 570.780516; 570.190310; 569.418490; 568.364561; 567.215681; 566.468000; 566.508234; 566.782713; 566.628456; 
2.8; 09:01:34; 793.429971; 794.363439; 794.074476; 793.658018; 793.428123; 792.814672; 792.437077; 792.720079; 793.280303; 793.913424; 794.521451; 794.826090; 795.223415; 795.734644; 796.105444; 796.508312; 796.403408; 796.291709; 796.396494; 797.238827; 798.196912; 798.411608; 797.454119; 796.379626; 795.504391; 794.821680; 794.182539; 793.642700; 793.014586; 792.004466; 790.989280; 790.682375; 790.296078; 789.086461; 786.410332; 782.356143; 776.805103; 769.919395; 759.413660; 741.717637; 718.057096; 684.221983; 634.865522; 579.114437; 529.091895; 478.716642; 421.224177; 371.308982; 322.253644; 273.878694; 226.726964; 174.585059; 125.695914; 86.467572; 52.392848; 23.217933; 6.254315; 0.713164; -0.743401; -1.353275; -1.542888; -1.654700; -1.585902; -1.658524; -1.729368; -1.744188; -1.709590; -1.715183; -1.635093; 11.881923; 51.900629; 88.364214; 124.579936; 165.115386; 204.959884; 239.712954; 274.419039; 314.163566; 353.950649; 388.799280; 424.357206; 465.005368; 501.395285; 537.385762; 556.139886; 556.625903; 557.327151; 558.651268; 560.660481; 562.212944; 564.122736; 566.090286; 567.596853; 569.857478; 571.957588; 572.818696; 574.047983; 574.589014; 574.768543; 574.450135; 573.427498; 571.433008; 569.402039; 567.851782; 566.925049; 565.424562; 564.241886; 563.729584; 562.461555; 561.724603; 561.579287; 561.466873; 561.503708; 562.254906; 563.026547; 563.767433; 564.551055; 565.240920; 566.171587; 567.140043; 568.209171; 569.196939; 569.690049; 570.342600; 570.939839; 570.743918; 569.718838; 568.576455; 567.603469; 567.163289; 567.011535; 566.783786; 566.250443; 565.562248; 565.327644; 565.111697; 564.835370; 564.302742; 563.288093; 562.227011; 
5.3; 09:01:44; 798.033535; 798.323691; 798.678994; 798.928559; 799.868047; 799.141407; 798.003376; 798.563778; 798.679888; 797.404289; 796.736836; 796.113849; 795.626998; 795.498013; 795.662165; 795.669436; 794.493794; 792.987883; 791.374564; 789.510548; 789.605856; 790.033638; 789.632738; 789.237738; 789.429903; 788.829803; 788.954258; 788.716912; 787.860274; 786.614776; 785.748482; 785.731137; 786.653638; 787.533581; 788.186729; 780.260921; 735.852659; 685.398877; 627.949357; 570.503294; 520.186603; 469.885409; 419.643521; 369.506299; 312.414616; 262.516409; 212.496132; 154.644519; 103.917226; 53.424865; 4.155623; -1.731740; -1.758174; -1.775242; -1.666049; -1.610128; -1.628776; -1.679350; -1.633332; -1.515451; -1.490173; -1.487177; -1.501000; -1.432859; -1.479876; -1.449051; -1.358223; -1.251729; -1.189499; -1.008980; 13.548082; 54.717734; 91.083035; 126.613528; 166.679576; 201.803282; 236.992210; 277.149707; 312.299281; 352.428555; 392.538816; 427.800864; 468.233585; 503.563643; 538.230181; 555.415750; 553.900242; 553.237796; 553.314030; 553.819180; 554.422498; 555.172265; 556.234717; 557.244182; 558.135629; 559.126377; 559.746027; 560.299695; 561.068058; 561.781645; 562.306404; 562.535405; 562.769890; 563.055634; 563.262284; 563.400924; 563.278973; 563.339293; 563.828588; 564.547539; 565.033495; 565.643370; 566.362381; 567.040205; 567.517221; 567.532778; 567.419291; 567.155480; 567.015052; 566.917896; 566.620648; 565.905035; 565.582097; 564.791799; 563.611925; 562.272847; 561.171949; 560.260773; 559.350908; 559.112430; 559.803784; 560.741842; 562.093318; 562.850833; 563.019931; 563.444614; 564.279377; 564.443529; 565.082967; 566.640615; 
7.8; 09:01:54; 813.822806; 810.419500; 808.443010; 807.270944; 807.309866; 806.220591; 806.016862; 806.519926; 805.880368; 803.566337; 800.181806; 797.317326; 795.005679; 793.556988; 793.300748; 794.123530; 795.342982; 795.798182; 795.030117; 793.091595; 791.931331; 790.065646; 787.817836; 785.983801; 785.354435; 785.993159; 785.768628; 779.262781; 760.490656; 728.758097; 694.002926; 652.507067; 600.969911; 554.513633; 506.803036; 451.669604; 395.550579; 345.861107; 296.456516; 239.643469; 182.104617; 133.834109; 92.752859; 60.855661; 35.978347; 18.877337; 10.456685; 4.658927; 1.571056; 0.106320; -0.969408; -1.464750; -1.548425; -1.664298; -1.699826; -1.691899; -1.627477; -1.638101; -1.624860; -1.629452; -1.168926; 23.453970; 64.461023; 100.560285; 136.282623; 177.319571; 218.375340; 253.898948; 289.356202; 330.070227; 365.272641; 400.259733; 440.236032; 480.652094; 521.342933; 553.075016; 557.039797; 556.460083; 555.962682; 555.470586; 554.763913; 554.258704; 554.823756; 555.749834; 556.432128; 557.229996; 558.919370; 560.638487; 561.240733; 561.316729; 561.536372; 561.738193; 561.984003; 562.338293; 562.871397; 563.429594; 563.693941; 563.354790; 562.616765; 562.123895; 561.946034; 561.328411; 560.663462; 561.105311; 561.626196; 562.193155; 562.693715; 563.091218; 563.420892; 563.808441; 564.064622; 564.273119; 564.833283; 565.387845; 565.816164; 566.154242; 566.203833; 566.023469; 565.866053; 565.992415; 566.151619; 566.531360; 567.203283; 567.697883; 568.115771; 568.404496; 568.421066; 568.087995; 567.706525; 567.404687; 567.105532; 566.832304; 566.661656; 566.680729; 566.519916; 566.207170; 565.701067; 564.747512; 563.617885; 562.655926; 
10.4; 09:02:04; 803.513765; 802.356064; 802.626133; 802.846968; 802.111268; 801.009357; 799.942851; 798.153520; 796.423852; 795.301199; 795.365393; 795.565963; 795.934856; 796.252549; 795.513630; 794.909716; 794.067204; 793.018818; 792.529941; 792.477429; 792.174816; 792.357326; 792.904317; 792.339802; 791.461885; 790.074050; 789.013803; 787.839293; 786.884069; 786.639929; 781.762838; 740.499258; 692.062318; 649.432003; 592.585385; 536.136210; 492.990166; 442.407131; 385.031968; 328.152448; 278.438687; 228.618577; 171.613842; 114.705354; 64.879484; 20.781280; 3.364381; 1.249179; 0.232404; -0.448256; -0.908156; -1.288900; -1.427509; -1.384893; -1.334932; -1.358004; -1.363108; -1.363236; -1.386367; -1.403425; -1.410524; -1.399679; -1.460261; -1.453560; -1.491182; -1.469829; -1.417508; -1.353757; -1.428323; -1.450062; -1.448176; -1.482048; -1.518437; -1.494041; -1.518375; -1.482780; -1.405789; -1.329429; -1.311490; -1.200584; 0.599181; 14.906764; 44.475425; 79.955593; 120.774895; 161.644295; 197.507709; 233.310044; 274.295211; 309.731930; 345.275670; 380.884379; 416.387171; 456.958115; 497.299910; 534.328103; 554.330111; 558.071673; 557.863414; 557.394922; 556.793928; 556.070447; 555.400491; 554.617167; 554.041862; 553.509533; 552.896380; 552.345812; 551.723957; 551.895857; 552.283823; 553.391933; 554.071486; 554.488301; 555.317640; 556.709349; 557.863951; 559.033990; 560.420394; 562.112868; 564.018548; 565.831482; 567.631185; 569.326758; 570.070684; 570.393622; 569.936633; 570.638478; 571.099937; 570.667148; 570.095003; 569.769561; 569.533050; 569.347262; 568.923295; 568.377018; 567.918956; 567.377269; 566.663861; 566.009462; 
12.9; 09:02:14; 802.029014; 800.196946; 785.091102; 752.099097; 708.369374; 671.515644; 637.686253; 602.346838; 555.220842; 497.683138; 439.711094; 389.165491; 338.167459; 286.945313; 236.095488; 177.770525; 121.818766; 77.357359; 51.815551; 36.187671; 22.100087; 10.370915; 1.570489; -1.763196; -2.129888; -2.082045; -2.077205; -2.051673; -1.960204; -1.974477; -1.993441; -1.993192; -2.000710; -2.029569; -2.005892; -1.959660; -1.933568; -1.870226; -1.835454; -1.860587; -1.866017; -1.762177; -1.770996; -1.815160; -1.742997; -1.757733; -1.751769; -1.688733; -1.652224; -1.598073; -1.546673; -1.476105; -1.456511; -1.526512; -1.517827; -1.560384; -1.614549; -1.635597; 0.409423; 26.889445; 67.566067; 102.556355; 137.741223; 178.153723; 213.618591; 249.083206; 289.675057; 330.422759; 366.251945; 401.995361; 442.898154; 479.422241; 515.971661; 551.643491; 558.450043; 557.980359; 558.035314; 558.649480; 559.027016; 559.337080; 559.680343; 559.919834; 560.237825; 560.486674; 560.860217; 561.182141; 560.456753; 559.910715; 560.032368; 560.590208; 561.722755; 562.477171; 562.943101; 563.772976; 564.459443; 564.757884; 564.988315; 564.998686; 564.911783; 564.671099; 564.439833; 564.247549; 564.126670; 563.755155; 563.485026; 563.515544; 564.034760; 564.195156; 563.839018; 563.710868; 564.160645; 564.925969; 565.805674; 566.574395; 567.231536; 567.913830; 568.891883; 570.147514; 571.331441; 571.520925; 571.060836; 569.974720; 568.773568; 567.921996; 567.567348; 567.575336; 567.737401; 567.543387; 566.688776; 566.228867; 566.709161; 567.443430; 568.079412; 568.899810; 569.654286; 570.595741; 571.955264; 573.856950; 575.811148; 576.858163; 
15.4; 09:02:25; 799.760938; 798.270524; 798.076570; 798.192203; 799.326062; 800.591946; 800.155044; 800.103486; 799.924612; 799.910665; 800.408483; 799.937189; 798.487365; 796.988547; 796.534896; 796.589613; 796.498716; 796.767116; 796.575189; 794.429123; 792.275965; 791.904211; 791.481376; 791.425288; 791.443765; 790.683210; 787.709177; 768.583298; 737.203181; 701.841056; 655.142784; 610.333204; 562.017977; 512.885571; 463.381141; 406.160802; 348.906398; 291.464686; 241.096273; 190.578818; 133.322313; 88.190734; 57.026345; 32.203842; 16.342904; 7.706215; 2.549649; -0.102121; -1.509646; -1.697684; -1.694952; -1.783215; -1.783499; -1.728591; -1.653444; -1.727177; -1.804690; -1.883767; -1.874389; -1.837939; -1.802904; -1.787900; -1.754616; -1.682839; -1.627522; -1.568149; -1.447064; -0.417734; 6.490875; 27.982654; 66.265695; 102.048919; 138.192669; 174.737379; 216.372758; 257.631898; 293.571413; 334.558785; 375.621140; 411.519676; 447.421014; 483.297199; 518.240869; 550.114572; 563.190043; 564.630210; 564.554632; 564.064622; 563.153565; 562.202811; 562.274694; 562.996686; 564.158082; 565.362453; 566.597700; 567.655683; 568.546772; 569.214046; 569.538951; 570.351839; 570.978045; 570.982039; 571.236372; 572.203219; 573.357701; 573.274136; 572.424114; 570.908129; 569.346845; 567.840576; 566.763580; 565.656841; 564.933121; 564.713180; 564.663470; 564.861059; 565.109849; 564.715445; 563.747048; 562.653124; 562.028646; 561.903715; 562.436879; 563.221931; 564.260960; 565.421760; 564.966023; 565.044463; 564.535558; 562.950671; 561.710417; 561.071277; 561.107218; 561.530232; 561.862171; 562.058389; 561.954200; 561.178505; 560.538471; 558.148444; 
17.9; 09:02:35; 793.467462; 794.646621; 795.719683; 796.685100; 797.579944; 798.251688; 798.548639; 798.629940; 798.600197; 798.020422; 798.026383; 798.031151; 797.989666; 798.239112; 798.302293; 798.048019; 797.182381; 796.268940; 795.392632; 794.414103; 793.818414; 793.489158; 793.639064; 794.495165; 795.609295; 796.938956; 797.782719; 798.637390; 799.742579; 800.719798; 799.066424; 792.468488; 784.284055; 774.936914; 765.903890; 755.809605; 743.201077; 731.642842; 719.977558; 706.838906; 692.486465; 677.773356; 659.191549; 628.664553; 589.627862; 546.277344; 496.644706; 453.409463; 411.155373; 369.575977; 323.129117; 277.661622; 238.157511; 198.410094; 158.516243; 113.761999; 77.097215; 44.133432; 15.651701; 2.598947; -1.227275; -1.761741; -1.811879; -1.845868; -1.800236; -1.678163; -1.750023; -1.697342; -1.671554; -1.590496; -1.495057; -1.453025; -1.430407; -1.541439; -1.654284; -1.635338; 1.749963; 33.254500; 69.079429; 105.117969; 141.161606; 177.490413; 219.321787; 255.535126; 291.991234; 338.594973; 379.695475; 416.085154; 452.212721; 488.335073; 529.896855; 562.016428; 568.227410; 568.737924; 568.893433; 569.053471; 568.947375; 567.832589; 567.169726; 566.685796; 566.538692; 566.776097; 566.588819; 566.882730; 567.113042; 566.772819; 566.401243; 566.156030; 566.253304; 566.253960; 566.232920; 566.298127; 567.008317; 567.625523; 567.792892; 567.700684; 567.468286; 567.092180; 566.592097; 566.250920; 566.019297; 565.912664; 565.896451; 566.066384; 566.641033; 567.356467; 567.963958; 568.521202; 569.046319; 569.594145; 570.149243; 570.781887; 571.334541; 571.787775; 572.425902; 573.162735; 573.711872; 574.156225; 574.145973; 573.624492; 
20.4; 09:02:45; (); 243.469819; 295.668393; 353.485674; 399.863183; 429.091007; 456.189930; 510.015547; 562.467635; 606.851459; 657.246172; 711.851180; 759.963214; 795.941889; 812.993467; 816.699505; 816.645980; 815.093696; 812.230289; 810.057461; 807.799816; 805.767238; 803.309381; 800.948203; 799.896240; 799.323380; 799.659193; 799.462914; 798.514068; 797.733426; 796.710491; 796.507239; 795.899153; 794.739425; 793.713152; 793.666661; 793.784678; 794.211686; 793.976843; 793.356717; 792.458713; 791.060925; 780.081689; 750.063300; 705.786169; 649.798274; 591.533899; 540.670335; 490.077168; 439.587176; 389.215410; 331.706494; 274.178654; 216.864631; 159.621909; 109.755076; 61.131041; 23.140108; 5.736927; -0.275324; -1.522225; -1.586301; -1.550034; -1.524949; -1.518149; -1.421262; -1.351140; -1.272176; -1.240808; -1.176186; -1.182877; -1.169374; -1.152201; -1.145642; -1.122199; -1.079168; -1.007566; 3.352338; 31.787582; 67.829981; 109.029703; 150.349945; 186.853394; 223.572552; 265.566885; 307.559282; 344.166279; 380.745798; 417.339921; 453.928739; 495.761424; 537.606239; 568.778515; 573.320210; 574.228108; 575.059831; 575.744033; 575.826466; 575.270057; 574.556708; 573.805869; 573.344290; 573.060930; 572.847664; 572.738647; 572.608531; 572.386801; 572.177529; 571.767747; 571.230054; 570.793092; 570.555627; 570.822537; 571.407259; 572.200477; 573.042750; 573.772669; 574.321270; 574.619114; 574.229956; 572.975695; 572.717547; 572.610915; 572.481692; 572.368383; 572.008550; 571.247816; 570.586741; 570.423543; 570.286810; 570.189297; 570.002079; 569.659829; 569.306433; 569.640636; 570.742309; 570.870638; 570.887625; 571.136057; 571.362674; 
22.9; 09:02:55; 485.228449; 523.207247; 549.346566; 573.308408; 593.467593; 606.367469; 619.802892; 642.722487; 700.753748; 761.177957; 802.515030; 809.143603; 809.639394; 809.864819; 807.487309; 768.538952; 710.238576; 659.418404; 608.551443; 550.295532; 491.887689; 447.749406; 402.964681; 342.021406; 281.396568; 228.926718; 177.157372; 118.457437; 60.079891; 11.179538; -2.013938; -2.131349; -2.116779; -2.111298; -2.092572; -2.065118; -2.052974; -2.069985; -2.042649; -1.996674; -1.983538; -1.927507; -1.906539; -1.842188; -1.781254; -1.780049; -1.781530; -1.825045; -1.790927; -1.782537; -1.792829; -1.745493; -1.700644; -1.720103; -1.769839; -1.868437; -1.901132; -1.923552; -1.934085; -1.899638; -1.846372; -1.790637; -1.779612; -1.837945; -1.799016; -1.792732; -1.801292; -1.798155; -1.711698; -1.675842; -1.616700; -1.633149; -1.561392; -1.557827; -1.576678; -1.599735; -1.615094; -1.509975; -1.456377; -1.452713; -1.392609; -1.383213; -1.325298; -1.346061; -1.362014; -1.310509; -1.322603; -1.346175; -1.331028; -1.264847; -1.300329; -1.277295; -1.272847; -1.241563; -1.278705; -1.341071; -1.374923; -1.397149; -1.379265; -1.341416; -1.335631; -1.338002; -1.345721; -1.423803; -1.488557; -1.425470; -1.379169; -1.423822; -1.445612; -1.419206; -1.377700; -1.347173; -1.325089; -1.325836; -1.360936; -1.284735; -1.217618; -1.230169; -1.217031; -1.195402; -1.192068; -1.233564; -1.186324; -1.157989; -1.185597; -1.155851; -1.111246; -1.108903; -1.111000; -1.064998; -1.147578; -1.179970; -1.160985; -1.056560; -1.056955; -1.056124; -1.047545; -1.047596; -1.015306; -0.925452; 
25.4; 09:03:05; (); 806.934297; 806.803703; 806.681931; 806.815147; 806.913733; 806.977868; 806.987822; 807.132840; 807.190120; 807.321191; 807.390809; 807.303965; 806.977689; 805.618942; 803.986847; 803.518653; 803.473890; 803.716838; 802.883089; 802.261233; 801.981986; 801.981091; 802.036405; 801.295877; 801.471710; 798.848689; 756.155193; 697.848558; 647.696435; 597.626150; 539.380908; 480.596900; 428.953141; 385.534257; 327.385038; 261.517167; 209.889203; 158.474103; 107.778527; 55.953875; 5.586462; -1.608160; -1.676114; -1.685421; -1.714738; -1.695870; -1.621566; -1.643224; -1.738051; -1.711985; -1.734998; -1.734539; -1.682219; -1.676996; -1.632863; -1.469702; 17.775347; 59.502486; 101.319447; 137.762889; 174.261302; 216.109917; 252.612412; 289.041162; 330.686539; 361.903518; 398.285747; 444.621533; 480.725139; 517.594397; 558.748662; 571.963310; 572.121203; 572.263479; 572.454453; 572.656512; 572.745919; 573.017001; 573.330462; 573.604643; 573.913157; 574.349642; 575.118423; 575.590432; 575.294256; 575.150549; 575.115979; 575.159550; 575.127721; 575.150788; 575.179636; 575.206220; 575.223267; 575.242817; 575.249076; 575.333774; 575.272977; 575.290024; 575.188279; 575.161636; 575.152814; 575.074494; 575.062573; 575.161576; 575.120687; 575.139701; 575.047553; 575.072169; 575.091720; 575.100362; 575.075865; 575.083911; 575.072646; 575.094700; 575.127006; 575.226128; 575.569570; 576.183856; 576.355755; 576.884508; 577.328861; 577.527642; 576.866806; 576.238275; 575.820267; 575.129449; 574.233592; 573.697686; 573.528171; 573.271632; 572.503328; 571.189582; 570.082724; 569.352746; 568.149388; 567.077160; 566.174150; 566.467881; 566.307902; 
28.0; 09:03:15; 801.353455; 802.707493; 802.803755; 803.064227; 803.138256; 803.577304; 803.293586; 803.082705; 803.862512; 805.046916; 805.552781; 805.056274; 804.572165; 804.396570; 804.051578; 803.206563; 802.516401; 802.472591; 802.865386; 803.333402; 803.091764; 802.556217; 802.305162; 802.231312; 802.387118; 802.382410; 802.268386; 802.038670; 801.769555; 801.834941; 802.177548; 802.625179; 803.452075; 804.011106; 804.672778; 806.275010; 808.311641; 809.905827; 811.271250; 812.290490; 812.841594; 813.114643; 813.153148; 813.032031; 813.349545; 814.112723; 789.522707; 732.515156; 672.817051; 620.306015; 567.814112; 507.801950; 455.443799; 403.165340; 343.428761; 284.309655; 232.964814; 182.003677; 123.790607; 64.840548; 14.702383; -0.617341; -1.723357; -1.789091; -1.839852; -1.708644; -1.645249; -1.692229; -1.670159; -1.610441; -1.613761; -1.594191; -1.540106; -1.572629; -1.615165; -1.684860; -1.609281; -1.561011; -1.412448; 3.544008; 32.224141; 73.896565; 110.580891; 147.228062; 188.628525; 230.192065; 266.620219; 303.027719; 344.839424; 386.675984; 423.134029; 459.371895; 501.703799; 538.829446; 566.885412; 572.532237; 572.410107; 571.659923; 571.354270; 571.859062; 572.244763; 572.607756; 572.659791; 572.417557; 572.204351; 571.965516; 571.602643; 570.616424; 569.896340; 570.088923; 569.790363; 569.527388; 569.756866; 569.747508; 569.882691; 570.125818; 570.139945; 570.312142; 570.519567; 570.709765; 571.142852; 571.709871; 571.966648; 572.331786; 573.030412; 574.072957; 575.110853; 575.664222; 575.926840; 575.416625; 574.867904; 574.450672; 574.127495; 573.907614; 573.943079; 574.041903; 574.110866; 574.121475; 573.606312; 572.489798; 
30.5; 09:03:26; (); 796.510100; 796.981096; 797.384441; 797.703862; 797.969162; 798.228741; 798.351347; 798.381031; 798.734426; 799.711287; 801.349938; 802.654088; 803.457439; 803.308725; 803.018510; 802.946985; 802.866876; 802.101433; 800.363123; 798.688710; 797.951400; 797.677398; 798.031032; 798.697352; 798.118234; 797.222495; 792.238891; 745.273530; 686.949015; 635.875285; 584.855914; 526.616991; 476.313591; 426.788360; 370.063007; 319.620371; 268.845439; 209.959254; 150.814399; 99.773519; 48.835244; 2.766871; -1.506654; -1.551172; -1.527315; -1.544069; -1.554190; -1.496445; -1.472206; -1.449025; -1.479024; -1.450800; -1.363687; -1.350245; -1.379278; -1.394841; -1.447122; -1.445689; -1.372302; -1.393542; -1.384152; -1.333426; -1.338995; -1.346427; -1.296496; -1.284852; -1.293063; -1.349847; -1.400143; -1.445150; -1.393602; -1.357998; -1.329929; -1.348243; -1.306460; -1.227104; -1.220846; -0.674870; 5.670563; 30.330133; 66.515207; 108.862676; 151.549071; 188.837305; 225.949034; 267.920613; 303.783387; 340.162188; 382.239193; 418.594629; 454.400778; 495.770037; 536.029279; 566.294968; 572.534859; 571.796596; 570.630014; 569.313407; 568.094909; 566.881239; 566.271544; 566.392183; 565.743923; 564.726710; 564.461052; 564.487576; 563.939512; 563.787818; 563.643575; 563.495755; 563.365281; 563.138843; 562.966466; 562.830567; 562.765479; 562.743664; 562.627733; 562.646151; 562.760293; 562.821329; 562.835932; 562.954128; 563.043535; 563.232064; 563.422441; 563.651025; 563.900292; 564.173460; 564.531684; 564.705372; 565.005243; 565.327406; 565.431178; 565.511823; 565.632224; 565.849960; 566.082418; 566.390812; 566.613495; 
33.0; 09:03:36; 801.231563; 801.156461; 801.185191; 801.142812; 801.014364; 801.079869; 801.187694; 801.174462; 801.090240; 801.223397; 801.349461; 801.442206; 801.414371; 801.464260; 801.475525; 801.355541; 801.209390; 801.038086; 800.903618; 800.742209; 800.423622; 800.122619; 800.025105; 799.773037; 799.237430; 798.415124; 797.078431; 795.644701; 794.706345; 794.207573; 793.791890; 793.501735; 793.221235; 793.007731; 792.922497; 792.900741; 793.022811; 793.230951; 793.092012; 792.382240; 791.512787; 791.194439; 791.833758; 792.627752; 792.677104; 793.100834; 793.888628; 794.872999; 794.139206; 781.707108; 747.005105; 692.569494; 641.619921; 590.885878; 533.779144; 477.168173; 427.394539; 376.910329; 318.727940; 260.839075; 209.688470; 158.263832; 99.504977; 43.824852; 11.993738; 1.013613; -1.529805; -1.648400; -1.580294; -1.629674; -1.466054; 28.478665; 70.556492; 101.975024; 138.254315; 180.207074; 216.177493; 251.975626; 292.849869; 328.435004; 364.000142; 404.574901; 440.102875; 480.598390; 521.579325; 555.694699; 565.292239; 565.413058; 566.079557; 566.512167; 566.818774; 567.988873; 569.564641; 571.221590; 572.747827; 574.351847; 576.236010; 577.842951; 579.547822; 580.758274; 580.843985; 580.448925; 580.318987; 580.453515; 580.747724; 581.206143; 581.445396; 581.254244; 580.523670; 579.900384; 579.394639; 578.892112; 578.380883; 577.960312; 577.681124; 577.721119; 577.730358; 577.406585; 576.973855; 576.360404; 575.460315; 574.791133; 574.626565; 574.733913; 574.692905; 574.679017; 574.590325; 574.367940; 574.177504; 574.114442; 574.013412; 573.860645; 573.763013; 573.694408; 573.662817; 573.619187; 573.515058; 573.499382; 573.589027; 573.499918; 
35.5; 09:03:46; 8.265062; 6.600667; 5.514836; 4.773721; 4.144866; 3.677733; 3.323701; -2.552354; -2.617548; -2.601341; -2.587312; -2.548171; -2.518754; -2.524608; -2.522053; -2.391662; -2.391129; -2.287264; -2.242890; -2.149527; -2.102420; -2.058746; -2.019658; -1.966548; -1.910432; -1.875138; -1.818431; -1.821692; -1.777044; -1.762508; -1.703926; -1.651964; -1.648492; -1.640967; -1.669056; -1.615609; -1.545728; -1.580131; -1.589267; -1.555543; 0.051025; 1.306781; 1.390524; 1.373533; 1.326338; 1.490516; 7.824618; 32.419126; 68.052627; 104.125768; 140.117824; 181.553096; 222.758189; 258.479685; 293.962628; 332.876086; 367.513776; 403.198689; 444.137812; 485.128045; 520.587862; 549.410582; 562.752485; 563.493431; 563.924074; 564.115226; 564.548552; 565.389335; 566.125154; 566.796422; 567.240715; 567.591310; 567.774534; 567.728758; 567.636430; 567.297697; 566.773176; 566.105902; 565.593243; 565.319240; 565.230668; 564.972758; 564.821184; 565.073431; 565.535724; 566.362619; 567.426324; 568.437219; 569.547832; 570.782959; 572.208047; 573.363245; 574.350774; 575.265288; 576.087534; 576.661944; 577.082872; 577.464700; 577.743173; 577.914655; 577.992797; 577.922165; 577.719867; 577.498138; 577.226996; 576.791346; 576.504290; 576.168537; 575.833917; 575.382888; 574.989974; 574.455976; 573.818088; 573.035240; 572.340131; 571.746767; 571.054816; 570.572138; 570.207894; 569.866300; 569.587946; 569.422185; 569.249272; 569.004953; 568.898976; 568.848729; 568.833649; 568.999529; 569.236159; 569.473743; 569.800556; 570.257902; 570.627928; 570.861459; 571.052969; 571.218610; 571.334422; 571.499407; 571.736574; 572.011828; 
38.0; 09:03:56; 797.940910; 798.404574; 798.224032; 798.302889; 798.602760; 798.768163; 797.905445; 797.350109; 797.220290; 796.577334; 795.354962; 794.115305; 793.117583; 792.400777; 792.143047; 791.624308; 791.245520; 790.809870; 790.035129; 789.490640; 788.567066; 788.340449; 788.073659; 787.750602; 787.787259; 788.162529; 788.315952; 788.509905; 788.314760; 787.247956; 786.536038; 787.091076; 788.708448; 789.564908; 790.152133; 791.477084; 792.744100; 793.369889; 794.548154; 795.454979; 795.089662; 794.797063; 795.198739; 795.271218; 791.423857; 784.712255; 776.393592; 765.708447; 756.636679; 746.150017; 724.904060; 689.844728; 647.906423; 599.963069; 543.839693; 487.122118; 437.200785; 386.742234; 330.208749; 284.738511; 241.317451; 192.240164; 149.887249; 107.956201; 62.583983; 32.075543; 12.496085; 2.909698; -0.464314; -1.881203; -2.137651; -2.169984; -2.158739; -2.134218; -2.097931; -2.024547; -1.943575; -1.895031; -1.871248; -1.825276; -1.764379; -1.712863; -1.746633; -1.802769; -1.778403; -1.796182; -1.777225; -1.788683; -1.748228; -1.709502; -1.699276; -1.678942; -1.682693; -1.682405; -1.663528; -1.614707; -1.596927; -1.570926; -1.511234; -1.518592; -1.436339; -1.422969; -1.375211; 3.903140; 37.824582; 74.185111; 110.644199; 146.759555; 187.807843; 223.893628; 259.925485; 301.111817; 342.313379; 378.223568; 414.135456; 456.122339; 492.942780; 529.398620; 564.583659; 568.566442; 568.788350; 569.075704; 569.063842; 568.506122; 568.141878; 568.361878; 568.870068; 570.000768; 571.214914; 572.072983; 572.087705; 572.154820; 572.282612; 572.253346; 572.163641; 572.021484; 571.863830; 572.607994; 574.656129; (); 
40.5; 09:04:06; (); 789.789498; 789.929748; 790.242553; 790.489554; 790.790558; 791.002214; 791.386306; 791.704893; 792.057574; 792.458773; 793.182909; 794.310331; 795.842528; 797.616482; 798.189640; 797.928095; 797.825038; 798.115373; 799.322724; 800.389528; 800.790787; 781.856596; 725.358903; 667.374313; 616.526544; 572.730541; 521.356761; 462.056905; 410.057753; 359.070659; 301.693797; 244.085044; 193.215787; 141.467914; 82.454354; 24.469120; -1.693868; -1.824132; -1.787466; -1.739187; -1.728520; -1.665614; -1.580365; -1.625694; -1.612260; -1.645760; -1.642715; -1.730601; -1.769922; -1.785922; -1.767172; -1.720771; -1.659983; 0.467682; 14.108640; 40.340558; 69.978178; 103.046678; 142.820999; 178.433925; 214.299753; 255.474657; 296.655327; 332.692713; 368.822902; 410.152525; 446.493268; 483.162612; 521.528363; 546.093822; 559.352934; 565.085769; 567.773342; 569.208384; 569.734573; 569.933474; 570.053637; 570.091426; 570.098817; 570.178449; 570.381343; 570.622981; 570.646167; 570.123255; 569.808781; 569.953561; 569.685817; 569.272399; 569.116950; 569.138944; 569.215894; 569.287539; 569.566190; 569.779932; 569.851816; 569.688141; 569.190025; 568.692386; 568.536401; 568.087876; 567.483127; 567.566991; 567.908227; 567.965269; 568.005919; 568.083167; 568.146706; 568.176091; 568.196535; 568.170130; 568.135142; 568.157494; 568.233192; 568.320870; 568.372369; 568.386972; 568.276286; 568.134904; 568.208992; 568.176508; 568.135023; 568.137109; 568.224311; 568.367362; 568.645298; 569.205701; 569.675982; 569.877148; 570.317864; 570.686519; 570.846617; 571.206033; 571.459293; 571.691155; 572.037637; 572.409034; 572.790384; 573.064625; 573.364615; 
43.1; 09:04:16; 788.850963; 788.789690; 788.638473; 788.744211; 788.771808; 788.858533; 788.984060; 788.962722; 788.865387; 788.907588; 788.956285; 789.066970; 789.105654; 789.186656; 789.312959; 789.327204; 789.389074; 790.164292; 790.666044; 791.754961; 793.465793; 794.651210; 795.256436; 795.684636; 798.289537; 800.496757; 800.543785; 776.085615; 724.096119; 674.202502; 623.863459; 573.697448; 522.638202; 464.543879; 405.989408; 346.505284; 287.634313; 229.806647; 178.287774; 132.948831; 80.490179; 25.656087; 1.845628; -1.338847; -1.581589; -1.566987; -1.555886; -1.537173; -1.540315; -1.634072; -1.738302; -1.754526; -1.760808; -1.819626; -1.886869; -1.925655; -1.953541; -1.983858; -2.010511; -1.990646; -1.922831; -1.925598; -1.979024; -2.034757; -2.044723; -2.008326; -2.011634; -1.937093; -1.854217; -1.815005; -1.796453; -1.759918; -1.715800; -1.668252; -1.608144; -1.613696; -1.631106; -1.669862; -1.640620; -1.555377; -1.566337; -1.578062; -1.608601; -1.642317; -1.653771; -1.606322; -1.563171; -1.591202; -1.583943; -1.581721; -1.614183; -1.573091; -1.517877; -1.493655; -1.520483; 10.819615; 52.015580; 93.917876; 125.504389; 167.314485; 207.320377; 223.663926; 225.919932; 225.879297; 225.980327; 238.700166; 278.342962; 314.875335; 346.046895; 387.297332; 406.928748; 407.026708; 406.998217; 406.879008; 406.766772; 410.885215; 432.640761; 467.512012; 508.389831; 549.064338; 569.400489; 569.789708; 569.367766; 569.047689; 568.722486; 568.492115; 568.206310; 567.754388; 567.210376; 567.234159; 567.079127; 567.382574; 568.683267; 569.624603; 569.907486; 569.956481; 569.979250; 570.383072; 571.049690; 571.517348; 
45.6; 09:04:27; (); 800.935745; 800.821722; 801.076829; 801.494539; 801.730037; 801.364362; 800.450623; 799.171805; 797.281146; 795.869946; 795.365572; 796.318412; 797.434390; 797.760308; 798.153222; 798.376679; 789.403796; 739.071906; 680.289567; 629.065096; 578.269124; 520.499408; 470.395684; 420.784682; 363.490909; 312.797666; 261.198252; 202.884808; 151.702002; 100.002110; 48.630837; 6.651775; -1.664783; -1.671501; -1.679772; -1.745426; -1.769733; -1.789040; -1.722144; -1.677574; -1.701533; -1.641387; -1.616643; -1.605232; -1.650354; -1.650872; -1.545518; -1.001134; 3.274259; 19.662511; 55.686627; 96.675627; 132.735744; 168.788821; 209.862560; 245.759696; 281.725377; 317.823410; 353.851110; 395.030022; 431.196302; 467.301577; 508.423507; 544.209301; 562.886357; 566.895783; 567.647636; 568.173230; 568.581641; 569.368660; 570.265472; 570.961654; 571.573138; 572.433412; 573.269486; 573.860586; 574.580491; 575.008392; 575.389683; 575.538278; 575.606465; 575.768530; 575.964510; 576.185703; 576.200664; 576.245427; 576.192975; 576.144099; 576.088309; 575.946927; 575.779676; 575.576425; 575.361013; 575.177968; 575.092793; 575.079501; 575.115263; 575.105727; 575.030267; 574.972212; 575.011611; 575.032949; 574.999392; 574.933171; 574.890792; 574.707091; 574.507654; 574.469924; 574.728489; 574.958324; 575.049818; 575.104952; 574.867189; 574.681640; 574.678659; 574.673891; 574.712574; 574.818254; 575.031400; 575.118124; 575.248539; 575.500488; 575.758815; 575.803816; 576.035380; 576.485515; 576.231539; 575.834036; 575.023234; 573.712111; 573.360980; 572.777808; 572.332382; 572.040379; 571.782768; 571.479023; 570.945382; 570.140004; 568.926513; 
48.1; 09:04:37; 787.715912; 788.170457; 788.555324; 789.015353; 789.492548; 789.777517; 790.034056; 790.233850; 790.257156; 791.003942; 791.811705; 792.364955; 793.451786; 794.920981; 796.267807; 797.660589; 798.842192; 800.169706; 801.461577; 802.384794; 801.973164; 801.301062; 801.265597; 801.389754; 801.368356; 801.039100; 800.615013; 799.863756; 798.570395; 797.210693; 795.570135; 793.556809; 791.435599; 789.505064; 787.870288; 787.876725; 788.140357; 787.889183; 787.812293; 788.016379; 788.240492; 788.158953; 787.576616; 786.074758; 781.801283; 770.679474; 741.633594; 704.836011; 668.252587; 623.014033; 582.058191; 539.974391; 496.526003; 451.948762; 399.252236; 351.959467; 305.063605; 252.509475; 201.432809; 158.972472; 124.839768; 99.783696; 82.988240; 69.790326; 57.958730; 48.753016; 40.500075; 32.591853; 25.927486; 21.564398; 18.216817; 14.188988; 10.343018; 6.486938; 2.640008; 0.050641; -1.367888; 5.133451; 37.878651; 73.240235; 113.999650; 155.613840; 191.318780; 226.743430; 267.227799; 307.741910; 343.169034; 378.543645; 418.765157; 459.456682; 495.989293; 533.261597; 561.391652; 562.364697; 563.954234; 564.806640; 565.428019; 566.341221; 566.540062; 567.172766; 568.768799; 569.788337; 570.776284; 572.007179; 572.734594; 572.557032; 571.617305; 570.949972; 570.585847; 570.621967; 570.661962; 570.748687; 571.282268; 572.478056; 573.620260; 574.182868; 575.305760; 576.363802; 577.357888; 578.300357; 578.957200; 579.569876; 580.163360; 580.329359; 580.250740; 580.375314; 580.482960; 580.702960; 580.989778; 580.968380; 580.663204; 579.989552; 578.999281; 578.114748; 577.675283; 577.380180; 577.312589; 577.529609; 577.956140; (); 
50.6; 09:04:47; -2.468810; -2.525558; -2.522303; -2.503839; -2.557297; -2.600692; -2.594915; -2.609991; -2.593089; -2.597959; -2.610733; -2.559507; -2.548137; -2.630737; -2.594582; -2.442155; -2.352007; -2.338443; -2.224599; -2.092664; -2.032971; -1.984155; -1.903550; -1.893930; -1.936172; -1.915229; -1.906156; -1.886749; -1.794971; -1.764256; -1.772496; -1.774530; -1.779512; -1.858065; -1.894507; -1.865305; -1.874785; -1.937798; -1.946102; -1.824290; -1.752433; -1.761462; -1.760669; -1.705089; -1.744578; -1.838171; -1.877773; -1.841957; -1.852250; -1.930071; -1.945047; -1.995523; -2.038787; -2.012238; -2.017714; -2.064350; -2.035885; -1.969012; -1.965966; -2.001378; -1.976347; -1.904239; -1.879417; -1.823602; -1.763443; -1.661632; -1.570469; -1.517855; -1.533819; -1.491583; -1.466002; -1.390337; -1.396552; -1.430926; -1.334136; -1.295118; -1.277613; -1.349347; -1.387760; -1.405278; -1.503025; -1.486436; -1.478385; -1.424743; -1.427084; -1.332775; -1.227246; -1.028741; -0.572360; 1.280981; 11.343163; 32.979049; 61.940644; 96.565358; 137.271717; 172.943741; 209.084213; 250.799388; 292.332649; 328.514993; 364.938229; 407.161146; 448.745131; 484.533697; 518.683136; 545.368135; 562.336266; 569.798529; 570.798218; 571.249843; 571.715295; 571.814060; 571.887314; 572.260201; 573.076427; 573.728621; 574.020445; 574.769437; 575.324953; 574.439406; 573.370278; 572.796583; 573.583186; 574.446559; 575.024247; 575.745642; 576.387346; 576.613367; 576.600015; 576.135278; 575.552702; 574.985266; 574.542820; 574.353874; 574.533165; 575.349391; 576.308131; 576.290011; 576.400161; 577.177525; 
